<?xml version="1.0"?>
<opencv_storage>
<cascade>
  <stageType>BOOST</stageType>
  <featureType>LBP</featureType>
  <height>30</height>
  <width>30</width>
  <stageParams>
    <boostType>GAB</boostType>
    <minHitRate>9.9900001287460327e-01</minHitRate>
    <maxFalseAlarm>5.0000000745058060e-02</maxFalseAlarm>
    <weightTrimRate>9.4999999999999996e-01</weightTrimRate>
    <maxDepth>1</maxDepth>
    <maxWeakCount>100</maxWeakCount></stageParams>
  <featureParams>
    <maxCatCount>256</maxCatCount>
    <featSize>1</featSize></featureParams>
  <stageNum>4</stageNum>
  <stages>
    <!-- stage 0 -->
    <_>
      <maxWeakCount>14</maxWeakCount>
      <stageThreshold>-9.0770733356475830e-01</stageThreshold>
      <weakClassifiers>
        <_>
          <internalNodes>
            0 -1 15 520829943 -1684546343 -1828506113 -1089007177
            -1970586883 -1142292326 -1156903939 -1080346485</internalNodes>
          <leafValues>
            -7.9878842830657959e-01 2.9093369841575623e-01</leafValues></_>
        <_>
          <internalNodes>
            0 -1 23 -16384006 -3934843 -615119480 -3211119 -645138195
            -170796911 -1189368840 -49169</internalNodes>
          <leafValues>
            -6.1197113990783691e-01 4.9179241061210632e-01</leafValues></_>
        <_>
          <internalNodes>
            0 -1 44 1020603957 1054675385 1465074591 1069521213
            784862141 -67391437 -1162137604 1073679294</internalNodes>
          <leafValues>
            -6.8693470954895020e-01 3.9874267578125000e-01</leafValues></_>
        <_>
          <internalNodes>
            0 -1 29 -866407929 -4997122 -3 -294929 2013214568
            -1442971665 -24602 -1833983998</internalNodes>
          <leafValues>
            -4.7781169414520264e-01 5.4700756072998047e-01</leafValues></_>
        <_>
          <internalNodes>
            0 -1 38 -1240441611 -35683883 -779630081 -40895083
            -255099145 -106217341 -1143419139 -2000682944</internalNodes>
          <leafValues>
            -4.7267377376556396e-01 5.8301943540573120e-01</leafValues></_>
        <_>
          <internalNodes>
            0 -1 55 -503841050 815584074 -669970104 1033046925 179235656
            965241003 -1885374756 1069528063</internalNodes>
          <leafValues>
            -5.7968503236770630e-01 4.9246653914451599e-01</leafValues></_>
        <_>
          <internalNodes>
            0 -1 48 -366697020 197937168 -771178344 1606439633 974719477
            -1322123256 855769939 -1490876366</internalNodes>
          <leafValues>
            -5.7130533456802368e-01 4.3423649668693542e-01</leafValues></_>
        <_>
          <internalNodes>
            0 -1 64 -2 538353672 -989753063 -1294770174 -1764497051
            813744136 -611730540 7862791</internalNodes>
          <leafValues>
            -7.4719256162643433e-01 3.3986032009124756e-01</leafValues></_>
        <_>
          <internalNodes>
            0 -1 59 959935093 932450451 -1652436513 -10632884 948603633
            -360021888 -1735943280 -1999629312</internalNodes>
          <leafValues>
            -5.3047925233840942e-01 4.6790799498558044e-01</leafValues></_>
        <_>
          <internalNodes>
            0 -1 56 -9977930 398192598 -147476 2146349049 2137857965
            938835837 -70926372 -278</internalNodes>
          <leafValues>
            -4.4177883863449097e-01 6.2518382072448730e-01</leafValues></_>
        <_>
          <internalNodes>
            0 -1 9 -1881247756 2006028693 1460704509 -1141600038
            2015902391 2073743427 -2006762531 2146400887</internalNodes>
          <leafValues>
            -5.8589148521423340e-01 4.6520274877548218e-01</leafValues></_>
        <_>
          <internalNodes>
            0 -1 2 -1892687901 -895041114 -721272634 -643839270
            1100116562 -532578285 -264019497 2001940310</internalNodes>
          <leafValues>
            -5.9443819522857666e-01 3.9692854881286621e-01</leafValues></_>
        <_>
          <internalNodes>
            0 -1 71 -1211105465 579780617 -1996402422 282022091
            -125312839 562102401 -83633404 -2141454650</internalNodes>
          <leafValues>
            -4.9657765030860901e-01 5.1598221063613892e-01</leafValues></_>
        <_>
          <internalNodes>
            0 -1 41 1403406836 395362435 -1878414454 -1790754793
            -1156921665 360726586 -1350320215 -1079386265</internalNodes>
          <leafValues>
            -5.0672781467437744e-01 4.9915689229965210e-01</leafValues></_></weakClassifiers></_>
    <!-- stage 1 -->
    <_>
      <maxWeakCount>17</maxWeakCount>
      <stageThreshold>-1.0747705698013306e+00</stageThreshold>
      <weakClassifiers>
        <_>
          <internalNodes>
            0 -1 67 -939524097 1086847927 -615791866 -2137524517
            -81005909 275570863 -555746203 1962933759</internalNodes>
          <leafValues>
            -8.7882006168365479e-01 -1.0638298094272614e-01</leafValues></_>
        <_>
          <internalNodes>
            0 -1 28 1993618933 1016173055 1063229375 1071364063 -6668299
            -1163267 -73715715 1073560412</internalNodes>
          <leafValues>
            -7.3113781213760376e-01 3.0159723758697510e-01</leafValues></_>
        <_>
          <internalNodes>
            0 -1 5 -424726801 1852498718 -985521906 -20272310 1732469365
            1919043363 1964335701 1096020838</internalNodes>
          <leafValues>
            -7.0215016603469849e-01 3.2767173647880554e-01</leafValues></_>
        <_>
          <internalNodes>
            0 -1 34 -1126908075 -304351393 -117055497 -2124849 -6816809
            -6321765 -74720479 675560452</internalNodes>
          <leafValues>
            -6.8939924240112305e-01 3.5409799218177795e-01</leafValues></_>
        <_>
          <internalNodes>
            0 -1 6 -286279049 -287509505 -248254230 -268460566
            2046826768 966812105 -134841516 1962374003</internalNodes>
          <leafValues>
            -5.9487098455429077e-01 3.7112420797348022e-01</leafValues></_>
        <_>
          <internalNodes>
            0 -1 72 -570426501 684692971 -260031652 395026482 -382778789
            476205267 -606766356 296221951</internalNodes>
          <leafValues>
            -5.1610696315765381e-01 4.2015263438224792e-01</leafValues></_>
        <_>
          <internalNodes>
            0 -1 19 1609883509 -65537 -285229057 -842158097 -11 -19
            -33044 -1434254303</internalNodes>
          <leafValues>
            -4.5196884870529175e-01 5.2550077438354492e-01</leafValues></_>
        <_>
          <internalNodes>
            0 -1 26 -429920512 -811863685 1405217378 -16780149
            -254021153 1067700355 -289412716 50314022</internalNodes>
          <leafValues>
            -6.3664513826370239e-01 3.7897300720214844e-01</leafValues></_>
        <_>
          <internalNodes>
            0 -1 58 -436226413 -1116803405 -155376104 -1912815830
            1853140932 -14204995 1811412336 -1277690933</internalNodes>
          <leafValues>
            -4.3129757046699524e-01 5.3879135847091675e-01</leafValues></_>
        <_>
          <internalNodes>
            0 -1 66 -6545 7712505 2147483564 1156902055 -60 813644659
            -147587840 -788529673</internalNodes>
          <leafValues>
            -4.3646439909934998e-01 5.2269572019577026e-01</leafValues></_>
        <_>
          <internalNodes>
            0 -1 54 1799593973 -732163867 1998313821 -12594393
            -225855241 -115895619 1904974705 255066116</internalNodes>
          <leafValues>
            -6.7525422573089600e-01 3.5222813487052917e-01</leafValues></_>
        <_>
          <internalNodes>
            0 -1 42 -150526162 649589214 1092590738 -687684661
            -696092209 2068349391 1741311464 1660217314</internalNodes>
          <leafValues>
            -6.4404791593551636e-01 3.3988228440284729e-01</leafValues></_>
        <_>
          <internalNodes>
            0 -1 37 886447025 1049924957 353436159 -1391619234
            -1115193859 -1081392998 -288396940 -1073991976</internalNodes>
          <leafValues>
            -5.7258999347686768e-01 4.1303330659866333e-01</leafValues></_>
        <_>
          <internalNodes>
            0 -1 11 -539954313 -1382627245 420484510 -1081506338
            1300961527 1051394363 1502555081 2140879842</internalNodes>
          <leafValues>
            -5.3231668472290039e-01 4.0571284294128418e-01</leafValues></_>
        <_>
          <internalNodes>
            0 -1 40 -787328717 -926756420 1096930091 -1362197528
            -179413245 1888295851 197391105 -252218445</internalNodes>
          <leafValues>
            -5.4035365581512451e-01 4.3126201629638672e-01</leafValues></_>
        <_>
          <internalNodes>
            0 -1 1 -263551177 -14696057 2040585567 -338832046 1504303567
            -69007223 -286658122 1086022951</internalNodes>
          <leafValues>
            -5.1802122592926025e-01 4.1771635413169861e-01</leafValues></_>
        <_>
          <internalNodes>
            0 -1 3 -345002399 -85983252 -20701 774307821 -415861275
            1702821750 2004346839 -134220205</internalNodes>
          <leafValues>
            -4.0512499213218689e-01 5.3295928239822388e-01</leafValues></_></weakClassifiers></_>
    <!-- stage 2 -->
    <_>
      <maxWeakCount>21</maxWeakCount>
      <stageThreshold>-9.3736386299133301e-01</stageThreshold>
      <weakClassifiers>
        <_>
          <internalNodes>
            0 -1 32 -1 -539246082 1364443871 -2312070 -116393233
            -75256661 -95421701 -2099201</internalNodes>
          <leafValues>
            -7.3063838481903076e-01 4.7802197933197021e-01</leafValues></_>
        <_>
          <internalNodes>
            0 -1 21 1067073461 -1084354121 1568146943 668809183
            -1079034891 -1077719365 -87343243 1054609401</internalNodes>
          <leafValues>
            -7.7560478448867798e-01 1.5077131986618042e-01</leafValues></_>
        <_>
          <internalNodes>
            0 -1 12 1515498356 -19426337 -1122902595 -1899104801
            -1141044491 -1188329249 -543166603 206176512</internalNodes>
          <leafValues>
            -7.4425715208053589e-01 1.9240479171276093e-01</leafValues></_>
        <_>
          <internalNodes>
            0 -1 68 -805568577 538443775 -262248 1102577663 -8390825
            14679927 939390725 -1063788649</internalNodes>
          <leafValues>
            -4.0405124425888062e-01 4.6337240934371948e-01</leafValues></_>
        <_>
          <internalNodes>
            0 -1 0 -462949457 1038077983 -2054237859 2145280060
            -367009542 2140849123 -952503471 57041667</internalNodes>
          <leafValues>
            -5.7088899612426758e-01 3.0822670459747314e-01</leafValues></_>
        <_>
          <internalNodes>
            0 -1 45 -1363607800 -170143265 -1627139109 -283060262
            2012196847 -606627025 -1057052696 360394502</internalNodes>
          <leafValues>
            -6.2278842926025391e-01 2.7232626080513000e-01</leafValues></_>
        <_>
          <internalNodes>
            0 -1 43 280685562 -790839061 -930082622 -612774835
            -213814556 1384268487 -649877563 -166300709</internalNodes>
          <leafValues>
            -4.3645814061164856e-01 3.8047543168067932e-01</leafValues></_>
        <_>
          <internalNodes>
            0 -1 62 654310397 912020472 -1726279201 1073574552 413089277
            -1465268087 -1144439875 268251644</internalNodes>
          <leafValues>
            -5.3819823265075684e-01 3.1001874804496765e-01</leafValues></_>
        <_>
          <internalNodes>
            0 -1 69 -4471 65535615 -553779202 -2046824469 -536871050
            116719103 -813760748 -2134903809</internalNodes>
          <leafValues>
            -4.1233640909194946e-01 4.4083648920059204e-01</leafValues></_>
        <_>
          <internalNodes>
            0 -1 20 -2248879 762761675 1924169867 -1096916144 1428226241
            -1478950291 -1159744358 -1262525625</internalNodes>
          <leafValues>
            -4.5052963495254517e-01 4.1283148527145386e-01</leafValues></_>
        <_>
          <internalNodes>
            0 -1 31 -378557214 -805470490 1795044580 -1380667922
            -34128196 1062535101 -1279262853 -196873682</internalNodes>
          <leafValues>
            -3.9689877629280090e-01 4.4438442587852478e-01</leafValues></_>
        <_>
          <internalNodes>
            0 -1 60 -1376913561 -1344548683 -133080587 -86584885
            -557069951 -91503997 -5665964 1298660656</internalNodes>
          <leafValues>
            -5.7374900579452515e-01 2.8901454806327820e-01</leafValues></_>
        <_>
          <internalNodes>
            0 -1 7 -104339041 2078004154 -1073691988 -574459498
            -918334925 1728765971 -234733439 -161223882</internalNodes>
          <leafValues>
            -3.6456871032714844e-01 4.8449513316154480e-01</leafValues></_>
        <_>
          <internalNodes>
            0 -1 27 69480259 -1818176836 -1789471564 -1074063613
            -598332448 164596375 -687470024 -1091748995</internalNodes>
          <leafValues>
            -5.3181982040405273e-01 3.5085576772689819e-01</leafValues></_>
        <_>
          <internalNodes>
            0 -1 39 1475717156 493212059 -183500524 -1202211902
            555141873 1898008760 -1163932995 1036990647</internalNodes>
          <leafValues>
            -6.0102534294128418e-01 2.8160876035690308e-01</leafValues></_>
        <_>
          <internalNodes>
            0 -1 51 -497080793 1541395694 -1744825127 -1790212950
            411813076 -74874752 -1467473047 -2131769630</internalNodes>
          <leafValues>
            -4.1163784265518188e-01 4.3963783979415894e-01</leafValues></_>
        <_>
          <internalNodes>
            0 -1 70 -875564337 881953618 -1067864872 289206374
            -1584460253 272335128 -603610708 143120895</internalNodes>
          <leafValues>
            -4.9926623702049255e-01 3.6375313997268677e-01</leafValues></_>
        <_>
          <internalNodes>
            0 -1 25 -344867977 -68288513 -2097283 -302153729 -32795 -1
            -16843781 -1907480572</internalNodes>
          <leafValues>
            -4.5942872762680054e-01 4.7645077109336853e-01</leafValues></_>
        <_>
          <internalNodes>
            0 -1 49 -1447035088 629723632 1264653589 -1672486458
            965311285 991543434 -132416139 958756324</internalNodes>
          <leafValues>
            -7.1163129806518555e-01 2.6402664184570312e-01</leafValues></_>
        <_>
          <internalNodes>
            0 -1 30 -97715250 -674958121 -652634676 1364911759
            1436142410 822165892 -175531904 1194433442</internalNodes>
          <leafValues>
            -6.4302587509155273e-01 2.5427410006523132e-01</leafValues></_>
        <_>
          <internalNodes>
            0 -1 52 -497587702 616591691 -1710227088 164681094
            -1815805715 2070643466 -759125989 -1074791812</internalNodes>
          <leafValues>
            -4.8681730031967163e-01 3.8215640187263489e-01</leafValues></_></weakClassifiers></_>
    <!-- stage 3 -->
    <_>
      <maxWeakCount>22</maxWeakCount>
      <stageThreshold>-8.8785839080810547e-01</stageThreshold>
      <weakClassifiers>
        <_>
          <internalNodes>
            0 -1 14 -537397249 -551562369 -1107560513 -2236961
            -335823873 -5518901 -1949827073 -18</internalNodes>
          <leafValues>
            -7.2207945585250854e-01 5.8278143405914307e-01</leafValues></_>
        <_>
          <internalNodes>
            0 -1 10 -134774853 -1140920929 -1825555994 -275220130
            1350843352 -1165278685 2031098877 2001042354</internalNodes>
          <leafValues>
            -6.6429287195205688e-01 1.6087159514427185e-01</leafValues></_>
        <_>
          <internalNodes>
            0 -1 53 1591164401 -1076096524 219640287 133774679 -85119035
            -91010866 976951677 -1616035939</internalNodes>
          <leafValues>
            -4.7369942069053650e-01 3.3736464381217957e-01</leafValues></_>
        <_>
          <internalNodes>
            0 -1 63 -2090866859 1429065948 -578563593 -1076661285
            -70536262 -298082093 -605292001 1303571</internalNodes>
          <leafValues>
            -5.0415444374084473e-01 3.0586689710617065e-01</leafValues></_>
        <_>
          <internalNodes>
            0 -1 22 1281125204 -610293417 -2013212163 -23604961
            -1128019113 -7802261 -107414667 686310160</internalNodes>
          <leafValues>
            -6.6752457618713379e-01 2.3429134488105774e-01</leafValues></_>
        <_>
          <internalNodes>
            0 -1 36 79790482 -671092872 2113811380 2066192350
            -1207968435 100498293 1475798169 -3151889</internalNodes>
          <leafValues>
            -3.7413492798805237e-01 4.2502284049987793e-01</leafValues></_>
        <_>
          <internalNodes>
            0 -1 18 2059810805 -547977007 -1690300065 387945690
            2074029052 445284760 868838396 -1679029640</internalNodes>
          <leafValues>
            -4.1104823350906372e-01 3.8272204995155334e-01</leafValues></_>
        <_>
          <internalNodes>
            0 -1 35 -1445564160 751096279 -1878665986 -296031250
            -583240764 2139064731 -1977688913 540141141</internalNodes>
          <leafValues>
            -6.9891905784606934e-01 2.2309780120849609e-01</leafValues></_>
        <_>
          <internalNodes>
            0 -1 47 -1579736136 -320679469 -1832381433 -332828256
            2048889836 2132654265 1887581904 636827332</internalNodes>
          <leafValues>
            -6.9212931394577026e-01 1.9612079858779907e-01</leafValues></_>
        <_>
          <internalNodes>
            0 -1 65 -121377906 542158122 -108922497 805496218 571187248
            344918016 856596532 11231071</internalNodes>
          <leafValues>
            -7.6534539461135864e-01 1.7385159432888031e-01</leafValues></_>
        <_>
          <internalNodes>
            0 -1 57 -228215710 2030490522 -802045559 -1692024333
            965606104 1351143491 -500600177 -1397157368</internalNodes>
          <leafValues>
            -4.0071487426757812e-01 3.8083648681640625e-01</leafValues></_>
        <_>
          <internalNodes>
            0 -1 8 1724900771 -1714700069 -761771652 1193734359
            1879527605 1666269696 1923562207 -104373465</internalNodes>
          <leafValues>
            -3.6284166574478149e-01 4.4717034697532654e-01</leafValues></_>
        <_>
          <internalNodes>
            0 -1 13 -1076180054 -2053909139 -765325185 1511313758
            766089376 1267434203 -74719804 638535425</internalNodes>
          <leafValues>
            -6.7655801773071289e-01 2.3249891400337219e-01</leafValues></_>
        <_>
          <internalNodes>
            0 -1 4 1324347251 1068691835 -1191063322 -577254997
            151706997 -1164221740 -1047977494 -17435791</internalNodes>
          <leafValues>
            -3.7530583143234253e-01 4.3167880177497864e-01</leafValues></_>
        <_>
          <internalNodes>
            0 -1 61 1658721141 -201997417 119808175 652121105 436283561
            -91158493 2074292209 1038908337</internalNodes>
          <leafValues>
            -6.6668206453323364e-01 2.4545906484127045e-01</leafValues></_>
        <_>
          <internalNodes>
            0 -1 50 787423061 -16777219 -1073745925 -16777225 -8423595
            -268435721 -16810115 -292856767</internalNodes>
          <leafValues>
            -3.9890390634536743e-01 4.1257059574127197e-01</leafValues></_>
        <_>
          <internalNodes>
            0 -1 33 -536841118 567759159 -1859776134 -967257449
            1752837028 1035654359 1908111860 1707603686</internalNodes>
          <leafValues>
            -6.1528080701828003e-01 2.5839039683341980e-01</leafValues></_>
        <_>
          <internalNodes>
            0 -1 16 -463770717 -1831205341 286692525 218396951
            1899539945 -1748891911 -1979983425 1442019394</internalNodes>
          <leafValues>
            -4.2538300156593323e-01 3.7752681970596313e-01</leafValues></_>
        <_>
          <internalNodes>
            0 -1 24 -69863883 -892157546 1144082483 -1631596400
            -98357226 -55854967 -1146072331 -1359201305</internalNodes>
          <leafValues>
            -3.7124466896057129e-01 4.2931747436523438e-01</leafValues></_>
        <_>
          <internalNodes>
            0 -1 17 -1495377328 -1097283685 1217910 2139902043
            -947683633 1520157070 -2305551 -271949070</internalNodes>
          <leafValues>
            -4.5055058598518372e-01 3.6385485529899597e-01</leafValues></_>
        <_>
          <internalNodes>
            0 -1 73 -763696088 5371970 -2080325614 -1210888192
            -477445551 1084884994 -1337630196 79149671</internalNodes>
          <leafValues>
            -6.9279885292053223e-01 2.2159145772457123e-01</leafValues></_>
        <_>
          <internalNodes>
            0 -1 46 2031988342 2050388870 1879151786 -965089071
            -400820160 680215119 842956933 -1356648339</internalNodes>
          <leafValues>
            -4.9161723256111145e-01 3.0924093723297119e-01</leafValues></_></weakClassifiers></_></stages>
  <features>
    <_>
      <rect>
        0 0 1 2</rect></_>
    <_>
      <rect>
        0 0 6 4</rect></_>
    <_>
      <rect>
        0 2 1 4</rect></_>
    <_>
      <rect>
        0 4 1 2</rect></_>
    <_>
      <rect>
        0 4 8 4</rect></_>
    <_>
      <rect>
        0 8 1 4</rect></_>
    <_>
      <rect>
        0 10 3 6</rect></_>
    <_>
      <rect>
        0 19 1 2</rect></_>
    <_>
      <rect>
        0 21 1 2</rect></_>
    <_>
      <rect>
        0 21 5 3</rect></_>
    <_>
      <rect>
        0 24 1 2</rect></_>
    <_>
      <rect>
        0 27 2 1</rect></_>
    <_>
      <rect>
        1 0 5 1</rect></_>
    <_>
      <rect>
        1 0 6 8</rect></_>
    <_>
      <rect>
        1 15 9 4</rect></_>
    <_>
      <rect>
        1 27 7 1</rect></_>
    <_>
      <rect>
        2 12 4 3</rect></_>
    <_>
      <rect>
        2 14 4 4</rect></_>
    <_>
      <rect>
        2 27 2 1</rect></_>
    <_>
      <rect>
        3 0 2 1</rect></_>
    <_>
      <rect>
        3 10 6 5</rect></_>
    <_>
      <rect>
        3 27 6 1</rect></_>
    <_>
      <rect>
        4 0 5 1</rect></_>
    <_>
      <rect>
        4 5 7 7</rect></_>
    <_>
      <rect>
        4 26 5 1</rect></_>
    <_>
      <rect>
        5 0 2 1</rect></_>
    <_>
      <rect>
        5 0 4 7</rect></_>
    <_>
      <rect>
        6 13 8 5</rect></_>
    <_>
      <rect>
        6 27 7 1</rect></_>
    <_>
      <rect>
        7 1 1 5</rect></_>
    <_>
      <rect>
        7 2 5 8</rect></_>
    <_>
      <rect>
        7 7 1 2</rect></_>
    <_>
      <rect>
        7 15 1 4</rect></_>
    <_>
      <rect>
        8 1 4 4</rect></_>
    <_>
      <rect>
        9 0 6 1</rect></_>
    <_>
      <rect>
        9 2 7 4</rect></_>
    <_>
      <rect>
        9 13 1 2</rect></_>
    <_>
      <rect>
        9 27 5 1</rect></_>
    <_>
      <rect>
        10 0 2 1</rect></_>
    <_>
      <rect>
        10 6 3 8</rect></_>
    <_>
      <rect>
        10 7 2 3</rect></_>
    <_>
      <rect>
        10 8 4 5</rect></_>
    <_>
      <rect>
        12 5 5 4</rect></_>
    <_>
      <rect>
        12 12 2 1</rect></_>
    <_>
      <rect>
        12 24 5 2</rect></_>
    <_>
      <rect>
        13 0 5 7</rect></_>
    <_>
      <rect>
        14 17 2 1</rect></_>
    <_>
      <rect>
        15 5 4 6</rect></_>
    <_>
      <rect>
        15 10 1 1</rect></_>
    <_>
      <rect>
        15 23 5 2</rect></_>
    <_>
      <rect>
        16 0 3 1</rect></_>
    <_>
      <rect>
        16 3 1 4</rect></_>
    <_>
      <rect>
        16 9 4 5</rect></_>
    <_>
      <rect>
        17 27 2 1</rect></_>
    <_>
      <rect>
        18 0 3 1</rect></_>
    <_>
      <rect>
        18 6 4 8</rect></_>
    <_>
      <rect>
        18 11 2 6</rect></_>
    <_>
      <rect>
        18 18 1 1</rect></_>
    <_>
      <rect>
        20 15 1 2</rect></_>
    <_>
      <rect>
        23 0 2 1</rect></_>
    <_>
      <rect>
        23 0 2 2</rect></_>
    <_>
      <rect>
        23 27 2 1</rect></_>
    <_>
      <rect>
        24 27 2 1</rect></_>
    <_>
      <rect>
        27 0 1 1</rect></_>
    <_>
      <rect>
        27 0 1 3</rect></_>
    <_>
      <rect>
        27 1 1 2</rect></_>
    <_>
      <rect>
        27 2 1 3</rect></_>
    <_>
      <rect>
        27 3 1 4</rect></_>
    <_>
      <rect>
        27 4 1 4</rect></_>
    <_>
      <rect>
        27 17 1 2</rect></_>
    <_>
      <rect>
        27 18 1 4</rect></_>
    <_>
      <rect>
        27 21 1 2</rect></_>
    <_>
      <rect>
        27 21 1 3</rect></_>
    <_>
      <rect>
        27 25 1 1</rect></_></features></cascade>
</opencv_storage>
